{
  "version": 3,
  "game": "Texas Hold'em",
  "episodes": 1300000,
  "seed": 7331,
  "workers": 8,
  "training_seconds": 238.7,
  "feature_names": [
    "street_preflop",
    "street_flop",
    "street_turn",
    "street_river",
    "equity",
    "pot_odds",
    "spr",
    "commitment",
    "pot_bb",
    "stack_bb",
    "opponents",
    "position_ip",
    "max_suit",
    "pair_count",
    "run_len",
    "monotone",
    "two_tone",
    "connected",
    "flush_draw",
    "made_flush",
    "open_ended",
    "gutshot",
    "pocket_pair",
    "overcards",
    "top_pair",
    "paired_board",
    "trips_or_better",
    "made_bin",
    "hero_hand_score",
    "bias"
  ],
  "policy": {
    "type": "linear_q",
    "gamma": 0.99,
    "lr": 0.025,
    "l2": 0.0002,
    "weights": [
      [
        0.729141891002655,
        0.8477003574371338,
        -0.10098857432603836,
        -2.423872947692871,
        -0.8062679767608643,
        0.9162958264350891,
        -0.5670137405395508,
        -0.28873342275619507,
        -1.8602508306503296,
        -0.5372042655944824,
        0.8057385087013245,
        0.4858429431915283,
        -0.9164085984230042,
        -0.026422666385769844,
        -0.5642219185829163,
        0.12984780967235565,
        0.1657528430223465,
        0.014492841437458992,
        0.0,
        -0.022340303286910057,
        -0.6472703218460083,
        -0.43978455662727356,
        0.042656656354665756,
        -0.02323162741959095,
        -0.08224935829639435,
        -0.16838230192661285,
        -0.07123903930187225,
        -0.3459817171096802,
        -0.8062679767608643,
        -0.9480218291282654
      ],
      [
        0.9524584412574768,
        0.40696981549263,
        -0.906300961971283,
        -2.4573123455047607,
        1.5632654428482056,
        0.620302140712738,
        -1.7321290969848633,
        -0.19622044265270233,
        -1.1796610355377197,
        -1.2386276721954346,
        -0.2316610962152481,
        0.8100878596305847,
        -1.1493240594863892,
        -0.5608212947845459,
        -0.6657498478889465,
        0.44050654768943787,
        -0.04890311136841774,
        0.24477854371070862,
        0.0,
        0.9607351422309875,
        -0.1843397319316864,
        -0.11797269433736801,
        0.6337423920631409,
        0.6154643297195435,
        1.6602866649627686,
        -0.790233314037323,
        4.842038631439209,
        1.371759295463562,
        1.5632654428482056,
        -2.0041911602020264
      ],
      [
        1.4924219846725464,
        0.9615938663482666,
        -0.37621259689331055,
        -4.15640926361084,
        2.131117820739746,
        -0.41692468523979187,
        -1.0281991958618164,
        -0.504830002784729,
        -2.6253626346588135,
        -1.255919098854065,
        0.5281991958618164,
        0.4361489415168762,
        -1.3864331245422363,
        -1.1019277572631836,
        -0.6119681000709534,
        0.4320615231990814,
        0.15972889959812164,
        -0.049714889377355576,
        0.0,
        1.1849952936172485,
        0.009077588096261024,
        -0.1681787520647049,
        -0.14244021475315094,
        1.4814701080322266,
        1.4285385608673096,
        -0.9230168461799622,
        7.167685031890869,
        2.406100034713745,
        2.131117820739746,
        -2.0786092281341553
      ]
    ]
  },
  "stats": {
    "updates": 102694,
    "wins": 35168,
    "losses": 14832,
    "ties": 0,
    "folds": 3680
  },
  "notes": "v3: estado continuo con equity, pot odds, SPR, textura y draws; curriculum heads-up→multiway; reward en BB; TD bootstrapped; acción legal mejor definida y un flujo de mano más estable. Reanudado desde un modelo previo. Sigue siendo un bot simplificado, pero ya entrena con una base bastante más seria."
}
