{
  "version": 3,
  "game": "Texas Hold'em",
  "episodes": 3000000,
  "seed": 7331,
  "workers": 8,
  "training_seconds": 7997.6,
  "feature_names": [
    "street_preflop",
    "street_flop",
    "street_turn",
    "street_river",
    "equity",
    "pot_odds",
    "spr",
    "commitment",
    "pot_bb",
    "stack_bb",
    "opponents",
    "position_ip",
    "max_suit",
    "pair_count",
    "run_len",
    "monotone",
    "two_tone",
    "connected",
    "flush_draw",
    "made_flush",
    "open_ended",
    "gutshot",
    "pocket_pair",
    "overcards",
    "top_pair",
    "paired_board",
    "trips_or_better",
    "made_bin",
    "hero_hand_score",
    "bias"
  ],
  "policy": {
    "type": "linear_q",
    "gamma": 0.99,
    "lr": 0.025,
    "l2": 0.0002,
    "weights": [
      [
        -0.6881510615348816,
        -0.3669646680355072,
        -0.2392282634973526,
        -0.632884681224823,
        -0.2222646176815033,
        -2.1594040393829346,
        3.3432438373565674,
        -3.1831870079040527,
        -14.238449096679688,
        -0.5750635266304016,
        2.1079208850860596,
        0.4994601011276245,
        -0.03348217532038689,
        -0.13642671704292297,
        0.04659906029701233,
        -0.009437106549739838,
        0.011808847077190876,
        -0.0777818039059639,
        0.0,
        -0.0010563655523583293,
        -0.00386852421797812,
        -0.01862223632633686,
        -0.046470627188682556,
        -0.09440650045871735,
        0.01915706694126129,
        0.07318226993083954,
        0.0541350357234478,
        -0.10755453258752823,
        -0.2222646176815033,
        -1.9272791147232056
      ],
      [
        0.8393712639808655,
        0.0027022662106901407,
        -0.8691103458404541,
        -2.3759958744049072,
        0.5450817346572876,
        -1.310512900352478,
        1.9796768426895142,
        -2.1369524002075195,
        -7.802544116973877,
        -1.2494601011276245,
        1.3470613956451416,
        0.3480358421802521,
        -1.0251033306121826,
        -5.773584842681885,
        0.22875627875328064,
        0.5276889204978943,
        0.1556643545627594,
        -0.4137684106826782,
        0.0,
        -0.1575242429971695,
        0.5341728329658508,
        -0.03316095843911171,
        0.011865139938890934,
        0.393869012594223,
        0.7978806495666504,
        1.13820481300354,
        3.702996015548706,
        3.6708920001983643,
        0.5450817346572876,
        -2.4030356407165527
      ],
      [
        -0.9066784977912903,
        -1.0045796632766724,
        -1.331132173538208,
        -1.7211521863937378,
        2.9163386821746826,
        -1.9150792360305786,
        3.5489561557769775,
        -4.069589138031006,
        -14.984149932861328,
        -2.5429718494415283,
        1.9925062656402588,
        0.41594451665878296,
        -1.596343755722046,
        -7.853498935699463,
        -1.030231237411499,
        -0.4982391893863678,
        0.2770060896873474,
        -1.7814422845840454,
        0.0,
        -1.239513874053955,
        0.9081768989562988,
        0.5662712454795837,
        -0.2955757975578308,
        1.5261123180389404,
        1.221397876739502,
        0.816187858581543,
        4.718323230743408,
        8.71645736694336,
        2.9163386821746826,
        -4.963464736938477
      ]
    ]
  },
  "stats": {
    "updates": 3174231,
    "wins": 1142552,
    "losses": 557447,
    "ties": 1,
    "folds": 126349
  },
  "notes": "v3: estado continuo con equity, pot odds, SPR, textura y draws; curriculum heads-up→multiway; reward en BB; TD bootstrapped; acción legal mejor definida y un flujo de mano más estable. Reanudado desde un modelo previo. Sigue siendo un bot simplificado, pero ya entrena con una base bastante más seria."
}